digraph Tree {
node [shape=box] ;
0 [label="Income <= 113.5\ngini = 0.174\nsamples = 5000\nvalue = [4520, 480]"] ;
1 [label="Income <= 92.5\ngini = 0.041\nsamples = 4021\nvalue = [3937, 84]"] ;
0 -> 1 [labeldistance=2.5, labelangle=45, headlabel="True"] ;
2 [label="Income <= 82.5\ngini = 0.014\nsamples = 3638\nvalue = [3613, 25]"] ;
1 -> 2 ;
3 [label="Income <= 63.5\ngini = 0.005\nsamples = 3272\nvalue = [3263, 9]"] ;
2 -> 3 ;
4 [label="Income <= 59.5\ngini = 0.001\nsamples = 2490\nvalue = [2489, 1]"] ;
3 -> 4 ;
5 [label="gini = 0.0\nsamples = 2280\nvalue = [2280, 0]"] ;
4 -> 5 ;
6 [label="Income <= 60.5\ngini = 0.009\nsamples = 210\nvalue = [209, 1]"] ;
4 -> 6 ;
7 [label="gini = 0.038\nsamples = 52\nvalue = [51, 1]"] ;
6 -> 7 ;
8 [label="gini = 0.0\nsamples = 158\nvalue = [158, 0]"] ;
6 -> 8 ;
9 [label="Income <= 76.5\ngini = 0.02\nsamples = 782\nvalue = [774, 8]"] ;
3 -> 9 ;
10 [label="Income <= 74.5\ngini = 0.025\nsamples = 468\nvalue = [462, 6]"] ;
9 -> 10 ;
11 [label="Income <= 73.5\ngini = 0.023\nsamples = 421\nvalue = [416, 5]"] ;
10 -> 11 ;
12 [label="Income <= 72.5\ngini = 0.026\nsamples = 376\nvalue = [371, 5]"] ;
11 -> 12 ;
13 [label="gini = 0.024\nsamples = 332\nvalue = [328, 4]"] ;
12 -> 13 ;
14 [label="gini = 0.044\nsamples = 44\nvalue = [43, 1]"] ;
12 -> 14 ;
15 [label="gini = 0.0\nsamples = 45\nvalue = [45, 0]"] ;
11 -> 15 ;
16 [label="gini = 0.042\nsamples = 47\nvalue = [46, 1]"] ;
10 -> 16 ;
17 [label="Income <= 80.5\ngini = 0.013\nsamples = 314\nvalue = [312, 2]"] ;
9 -> 17 ;
18 [label="gini = 0.0\nsamples = 170\nvalue = [170, 0]"] ;
17 -> 18 ;
19 [label="Income <= 81.5\ngini = 0.027\nsamples = 144\nvalue = [142, 2]"] ;
17 -> 19 ;
20 [label="gini = 0.024\nsamples = 83\nvalue = [82, 1]"] ;
19 -> 20 ;
21 [label="gini = 0.032\nsamples = 61\nvalue = [60, 1]"] ;
19 -> 21 ;
22 [label="Income <= 83.5\ngini = 0.084\nsamples = 366\nvalue = [350, 16]"] ;
2 -> 22 ;
23 [label="gini = 0.171\nsamples = 74\nvalue = [67, 7]"] ;
22 -> 23 ;
24 [label="Income <= 88.5\ngini = 0.06\nsamples = 292\nvalue = [283, 9]"] ;
22 -> 24 ;
25 [label="Income <= 86.5\ngini = 0.038\nsamples = 154\nvalue = [151, 3]"] ;
24 -> 25 ;
26 [label="Income <= 84.5\ngini = 0.046\nsamples = 128\nvalue = [125, 3]"] ;
25 -> 26 ;
27 [label="gini = 0.031\nsamples = 63\nvalue = [62, 1]"] ;
26 -> 27 ;
28 [label="gini = 0.06\nsamples = 65\nvalue = [63, 2]"] ;
26 -> 28 ;
29 [label="gini = 0.0\nsamples = 26\nvalue = [26, 0]"] ;
25 -> 29 ;
30 [label="Income <= 89.5\ngini = 0.083\nsamples = 138\nvalue = [132, 6]"] ;
24 -> 30 ;
31 [label="gini = 0.111\nsamples = 34\nvalue = [32, 2]"] ;
30 -> 31 ;
32 [label="Income <= 90.5\ngini = 0.074\nsamples = 104\nvalue = [100, 4]"] ;
30 -> 32 ;
33 [label="gini = 0.051\nsamples = 38\nvalue = [37, 1]"] ;
32 -> 33 ;
34 [label="Income <= 91.5\ngini = 0.087\nsamples = 66\nvalue = [63, 3]"] ;
32 -> 34 ;
35 [label="gini = 0.102\nsamples = 37\nvalue = [35, 2]"] ;
34 -> 35 ;
36 [label="gini = 0.067\nsamples = 29\nvalue = [28, 1]"] ;
34 -> 36 ;
37 [label="Income <= 98.5\ngini = 0.261\nsamples = 383\nvalue = [324, 59]"] ;
1 -> 37 ;
38 [label="Income <= 96.5\ngini = 0.172\nsamples = 116\nvalue = [105, 11]"] ;
37 -> 38 ;
39 [label="Income <= 94.5\ngini = 0.184\nsamples = 88\nvalue = [79, 9]"] ;
38 -> 39 ;
40 [label="Income <= 93.5\ngini = 0.172\nsamples = 63\nvalue = [57, 6]"] ;
39 -> 40 ;
41 [label="gini = 0.193\nsamples = 37\nvalue = [33, 4]"] ;
40 -> 41 ;
42 [label="gini = 0.142\nsamples = 26\nvalue = [24, 2]"] ;
40 -> 42 ;
43 [label="gini = 0.211\nsamples = 25\nvalue = [22, 3]"] ;
39 -> 43 ;
44 [label="gini = 0.133\nsamples = 28\nvalue = [26, 2]"] ;
38 -> 44 ;
45 [label="Income <= 111.5\ngini = 0.295\nsamples = 267\nvalue = [219, 48]"] ;
37 -> 45 ;
46 [label="Income <= 110.5\ngini = 0.312\nsamples = 207\nvalue = [167, 40]"] ;
45 -> 46 ;
47 [label="Income <= 99.5\ngini = 0.293\nsamples = 185\nvalue = [152, 33]"] ;
46 -> 47 ;
48 [label="gini = 0.33\nsamples = 24\nvalue = [19, 5]"] ;
47 -> 48 ;
49 [label="Income <= 100.5\ngini = 0.287\nsamples = 161\nvalue = [133, 28]"] ;
47 -> 49 ;
50 [label="gini = 0.18\nsamples = 10\nvalue = [9, 1]"] ;
49 -> 50 ;
51 [label="Income <= 108.5\ngini = 0.294\nsamples = 151\nvalue = [124, 27]"] ;
49 -> 51 ;
52 [label="gini = 0.301\nsamples = 114\nvalue = [93, 21]"] ;
51 -> 52 ;
53 [label="gini = 0.272\nsamples = 37\nvalue = [31, 6]"] ;
51 -> 53 ;
54 [label="gini = 0.434\nsamples = 22\nvalue = [15, 7]"] ;
46 -> 54 ;
55 [label="Income <= 112.5\ngini = 0.231\nsamples = 60\nvalue = [52, 8]"] ;
45 -> 55 ;
56 [label="gini = 0.204\nsamples = 26\nvalue = [23, 3]"] ;
55 -> 56 ;
57 [label="gini = 0.251\nsamples = 34\nvalue = [29, 5]"] ;
55 -> 57 ;
58 [label="Income <= 163.5\ngini = 0.482\nsamples = 979\nvalue = [583, 396]"] ;
0 -> 58 [labeldistance=2.5, labelangle=-45, headlabel="False"] ;
59 [label="Income <= 128.5\ngini = 0.45\nsamples = 679\nvalue = [447, 232]"] ;
58 -> 59 ;
60 [label="Income <= 126.5\ngini = 0.4\nsamples = 232\nvalue = [168, 64]"] ;
59 -> 60 ;
61 [label="Income <= 122.5\ngini = 0.411\nsamples = 208\nvalue = [148, 60]"] ;
60 -> 61 ;
62 [label="Income <= 120.5\ngini = 0.389\nsamples = 155\nvalue = [114, 41]"] ;
61 -> 62 ;
63 [label="Income <= 114.5\ngini = 0.41\nsamples = 111\nvalue = [79, 32]"] ;
62 -> 63 ;
64 [label="gini = 0.358\nsamples = 30\nvalue = [23, 7]"] ;
63 -> 64 ;
65 [label="Income <= 119.5\ngini = 0.427\nsamples = 81\nvalue = [56, 25]"] ;
63 -> 65 ;
66 [label="gini = 0.417\nsamples = 64\nvalue = [45, 19]"] ;
65 -> 66 ;
67 [label="gini = 0.457\nsamples = 17\nvalue = [11, 6]"] ;
65 -> 67 ;
68 [label="Income <= 121.5\ngini = 0.325\nsamples = 44\nvalue = [35, 9]"] ;
62 -> 68 ;
69 [label="gini = 0.18\nsamples = 20\nvalue = [18, 2]"] ;
68 -> 69 ;
70 [label="gini = 0.413\nsamples = 24\nvalue = [17, 7]"] ;
68 -> 70 ;
71 [label="Income <= 123.5\ngini = 0.46\nsamples = 53\nvalue = [34, 19]"] ;
61 -> 71 ;
72 [label="gini = 0.5\nsamples = 18\nvalue = [9, 9]"] ;
71 -> 72 ;
73 [label="Income <= 124.5\ngini = 0.408\nsamples = 35\nvalue = [25, 10]"] ;
71 -> 73 ;
74 [label="gini = 0.375\nsamples = 12\nvalue = [9, 3]"] ;
73 -> 74 ;
75 [label="gini = 0.423\nsamples = 23\nvalue = [16, 7]"] ;
73 -> 75 ;
76 [label="gini = 0.278\nsamples = 24\nvalue = [20, 4]"] ;
60 -> 76 ;
77 [label="Income <= 136.5\ngini = 0.469\nsamples = 447\nvalue = [279, 168]"] ;
59 -> 77 ;
78 [label="Income <= 134.5\ngini = 0.493\nsamples = 132\nvalue = [74, 58]"] ;
77 -> 78 ;
79 [label="Income <= 129.5\ngini = 0.488\nsamples = 114\nvalue = [66, 48]"] ;
78 -> 79 ;
80 [label="gini = 0.454\nsamples = 23\nvalue = [15, 8]"] ;
79 -> 80 ;
81 [label="Income <= 130.5\ngini = 0.493\nsamples = 91\nvalue = [51, 40]"] ;
79 -> 81 ;
82 [label="gini = 0.488\nsamples = 19\nvalue = [8, 11]"] ;
81 -> 82 ;
83 [label="Income <= 133.5\ngini = 0.481\nsamples = 72\nvalue = [43, 29]"] ;
81 -> 83 ;
84 [label="gini = 0.488\nsamples = 52\nvalue = [30, 22]"] ;
83 -> 84 ;
85 [label="gini = 0.455\nsamples = 20\nvalue = [13, 7]"] ;
83 -> 85 ;
86 [label="gini = 0.494\nsamples = 18\nvalue = [8, 10]"] ;
78 -> 86 ;
87 [label="Income <= 156.5\ngini = 0.455\nsamples = 315\nvalue = [205, 110]"] ;
77 -> 87 ;
88 [label="Income <= 143.5\ngini = 0.442\nsamples = 243\nvalue = [163, 80]"] ;
87 -> 88 ;
89 [label="Income <= 141.5\ngini = 0.469\nsamples = 101\nvalue = [63, 38]"] ;
88 -> 89 ;
90 [label="Income <= 138.5\ngini = 0.447\nsamples = 77\nvalue = [51, 26]"] ;
89 -> 90 ;
91 [label="gini = 0.401\nsamples = 18\nvalue = [13, 5]"] ;
90 -> 91 ;
92 [label="gini = 0.458\nsamples = 59\nvalue = [38, 21]"] ;
90 -> 92 ;
93 [label="Income <= 142.5\ngini = 0.5\nsamples = 24\nvalue = [12, 12]"] ;
89 -> 93 ;
94 [label="gini = 0.498\nsamples = 15\nvalue = [7, 8]"] ;
93 -> 94 ;
95 [label="gini = 0.494\nsamples = 9\nvalue = [5, 4]"] ;
93 -> 95 ;
96 [label="Income <= 151.5\ngini = 0.417\nsamples = 142\nvalue = [100, 42]"] ;
88 -> 96 ;
97 [label="Income <= 148.5\ngini = 0.375\nsamples = 76\nvalue = [57, 19]"] ;
96 -> 97 ;
98 [label="gini = 0.414\nsamples = 41\nvalue = [29, 12]"] ;
97 -> 98 ;
99 [label="gini = 0.32\nsamples = 35\nvalue = [28, 7]"] ;
97 -> 99 ;
100 [label="Income <= 154.5\ngini = 0.454\nsamples = 66\nvalue = [43, 23]"] ;
96 -> 100 ;
101 [label="gini = 0.473\nsamples = 47\nvalue = [29, 18]"] ;
100 -> 101 ;
102 [label="gini = 0.388\nsamples = 19\nvalue = [14, 5]"] ;
100 -> 102 ;
103 [label="Income <= 159.5\ngini = 0.486\nsamples = 72\nvalue = [42, 30]"] ;
87 -> 103 ;
104 [label="Income <= 158.5\ngini = 0.493\nsamples = 25\nvalue = [11, 14]"] ;
103 -> 104 ;
105 [label="gini = 0.494\nsamples = 18\nvalue = [8, 10]"] ;
104 -> 105 ;
106 [label="gini = 0.49\nsamples = 7\nvalue = [3, 4]"] ;
104 -> 106 ;
107 [label="Income <= 161.5\ngini = 0.449\nsamples = 47\nvalue = [31, 16]"] ;
103 -> 107 ;
108 [label="Income <= 160.5\ngini = 0.477\nsamples = 28\nvalue = [17, 11]"] ;
107 -> 108 ;
109 [label="gini = 0.444\nsamples = 12\nvalue = [8, 4]"] ;
108 -> 109 ;
110 [label="gini = 0.492\nsamples = 16\nvalue = [9, 7]"] ;
108 -> 110 ;
111 [label="Income <= 162.5\ngini = 0.388\nsamples = 19\nvalue = [14, 5]"] ;
107 -> 111 ;
112 [label="gini = 0.42\nsamples = 10\nvalue = [7, 3]"] ;
111 -> 112 ;
113 [label="gini = 0.346\nsamples = 9\nvalue = [7, 2]"] ;
111 -> 113 ;
114 [label="Income <= 194.5\ngini = 0.496\nsamples = 300\nvalue = [136, 164]"] ;
58 -> 114 ;
115 [label="Income <= 181.5\ngini = 0.48\nsamples = 260\nvalue = [104, 156]"] ;
114 -> 115 ;
116 [label="Income <= 173.5\ngini = 0.49\nsamples = 158\nvalue = [68, 90]"] ;
115 -> 116 ;
117 [label="Income <= 166.5\ngini = 0.466\nsamples = 84\nvalue = [31, 53]"] ;
116 -> 117 ;
118 [label="Income <= 164.5\ngini = 0.497\nsamples = 24\nvalue = [11, 13]"] ;
117 -> 118 ;
119 [label="gini = 0.497\nsamples = 13\nvalue = [6, 7]"] ;
118 -> 119 ;
120 [label="gini = 0.496\nsamples = 11\nvalue = [5, 6]"] ;
118 -> 120 ;
121 [label="Income <= 169.5\ngini = 0.444\nsamples = 60\nvalue = [20, 40]"] ;
117 -> 121 ;
122 [label="Income <= 168.5\ngini = 0.32\nsamples = 15\nvalue = [3, 12]"] ;
121 -> 122 ;
123 [label="gini = 0.375\nsamples = 8\nvalue = [2, 6]"] ;
122 -> 123 ;
124 [label="gini = 0.245\nsamples = 7\nvalue = [1, 6]"] ;
122 -> 124 ;
125 [label="Income <= 171.5\ngini = 0.47\nsamples = 45\nvalue = [17, 28]"] ;
121 -> 125 ;
126 [label="gini = 0.49\nsamples = 21\nvalue = [9, 12]"] ;
125 -> 126 ;
127 [label="gini = 0.444\nsamples = 24\nvalue = [8, 16]"] ;
125 -> 127 ;
128 [label="Income <= 179.5\ngini = 0.5\nsamples = 74\nvalue = [37, 37]"] ;
116 -> 128 ;
129 [label="Income <= 176.5\ngini = 0.499\nsamples = 48\nvalue = [23, 25]"] ;
128 -> 129 ;
130 [label="Income <= 174.5\ngini = 0.499\nsamples = 21\nvalue = [11, 10]"] ;
129 -> 130 ;
131 [label="gini = 0.494\nsamples = 9\nvalue = [4, 5]"] ;
130 -> 131 ;
132 [label="gini = 0.486\nsamples = 12\nvalue = [7, 5]"] ;
130 -> 132 ;
133 [label="Income <= 178.5\ngini = 0.494\nsamples = 27\nvalue = [12, 15]"] ;
129 -> 133 ;
134 [label="gini = 0.48\nsamples = 10\nvalue = [4, 6]"] ;
133 -> 134 ;
135 [label="gini = 0.498\nsamples = 17\nvalue = [8, 9]"] ;
133 -> 135 ;
136 [label="Income <= 180.5\ngini = 0.497\nsamples = 26\nvalue = [14, 12]"] ;
128 -> 136 ;
137 [label="gini = 0.494\nsamples = 18\nvalue = [10, 8]"] ;
136 -> 137 ;
138 [label="gini = 0.5\nsamples = 8\nvalue = [4, 4]"] ;
136 -> 138 ;
139 [label="Income <= 182.5\ngini = 0.457\nsamples = 102\nvalue = [36, 66]"] ;
115 -> 139 ;
140 [label="gini = 0.26\nsamples = 13\nvalue = [2, 11]"] ;
139 -> 140 ;
141 [label="Income <= 183.5\ngini = 0.472\nsamples = 89\nvalue = [34, 55]"] ;
139 -> 141 ;
142 [label="gini = 0.5\nsamples = 12\nvalue = [6, 6]"] ;
141 -> 142 ;
143 [label="Income <= 188.5\ngini = 0.463\nsamples = 77\nvalue = [28, 49]"] ;
141 -> 143 ;
144 [label="Income <= 184.5\ngini = 0.412\nsamples = 31\nvalue = [9, 22]"] ;
143 -> 144 ;
145 [label="gini = 0.375\nsamples = 12\nvalue = [3, 9]"] ;
144 -> 145 ;
146 [label="gini = 0.432\nsamples = 19\nvalue = [6, 13]"] ;
144 -> 146 ;
147 [label="Income <= 193.5\ngini = 0.485\nsamples = 46\nvalue = [19, 27]"] ;
143 -> 147 ;
148 [label="gini = 0.478\nsamples = 38\nvalue = [15, 23]"] ;
147 -> 148 ;
149 [label="gini = 0.5\nsamples = 8\nvalue = [4, 4]"] ;
147 -> 149 ;
150 [label="Income <= 196.5\ngini = 0.32\nsamples = 40\nvalue = [32, 8]"] ;
114 -> 150 ;
151 [label="gini = 0.444\nsamples = 15\nvalue = [10, 5]"] ;
150 -> 151 ;
152 [label="Income <= 200.5\ngini = 0.211\nsamples = 25\nvalue = [22, 3]"] ;
150 -> 152 ;
153 [label="gini = 0.0\nsamples = 9\nvalue = [9, 0]"] ;
152 -> 153 ;
154 [label="Income <= 203.5\ngini = 0.305\nsamples = 16\nvalue = [13, 3]"] ;
152 -> 154 ;
155 [label="Income <= 201.5\ngini = 0.444\nsamples = 9\nvalue = [6, 3]"] ;
154 -> 155 ;
156 [label="gini = 0.32\nsamples = 5\nvalue = [4, 1]"] ;
155 -> 156 ;
157 [label="Income <= 202.5\ngini = 0.5\nsamples = 4\nvalue = [2, 2]"] ;
155 -> 157 ;
158 [label="gini = 0.5\nsamples = 2\nvalue = [1, 1]"] ;
157 -> 158 ;
159 [label="gini = 0.5\nsamples = 2\nvalue = [1, 1]"] ;
157 -> 159 ;
160 [label="gini = 0.0\nsamples = 7\nvalue = [7, 0]"] ;
154 -> 160 ;
}